digraph Tree {
node [shape=box, style="filled, rounded", color="black", fontname=helvetica] ;
edge [fontname=helvetica] ;
0 [label="Sex_bin <= 0.5\ngini = 0.473\nsamples = 891\nvalue = [549, 342]\nclass = Survived", fillcolor="#e5813960"] ;
1 [label="Pclass <= 1.5\ngini = 0.306\nsamples = 577\nvalue = [468, 109]\nclass = Survived", fillcolor="#e58139c4"] ;
0 -> 1 [labeldistance=2.5, labelangle=45, headlabel="True"] ;
2 [label="Age <= 53.0\ngini = 0.466\nsamples = 122\nvalue = [77, 45]\nclass = Survived", fillcolor="#e581396a"] ;
1 -> 2 ;
3 [label="Age <= 0.46\ngini = 0.487\nsamples = 100\nvalue = [58, 42]\nclass = Survived", fillcolor="#e5813946"] ;
2 -> 3 ;
4 [label="gini = 0.363\nsamples = 21\nvalue = [16, 5]\nclass = Survived", fillcolor="#e58139af"] ;
3 -> 4 ;
5 [label="Age <= 17.5\ngini = 0.498\nsamples = 79\nvalue = [42, 37]\nclass = Survived", fillcolor="#e581391e"] ;
3 -> 5 ;
6 [label="gini = 0.0\nsamples = 4\nvalue = [0, 4]\nclass = Did not survived", fillcolor="#399de5ff"] ;
5 -> 6 ;
7 [label="Age <= 22.5\ngini = 0.493\nsamples = 75\nvalue = [42, 33]\nclass = Survived", fillcolor="#e5813937"] ;
5 -> 7 ;
8 [label="gini = 0.0\nsamples = 5\nvalue = [5, 0]\nclass = Survived", fillcolor="#e58139ff"] ;
7 -> 8 ;
9 [label="Age <= 36.5\ngini = 0.498\nsamples = 70\nvalue = [37, 33]\nclass = Survived", fillcolor="#e581391c"] ;
7 -> 9 ;
10 [label="Age <= 33.5\ngini = 0.482\nsamples = 32\nvalue = [13, 19]\nclass = Did not survived", fillcolor="#399de551"] ;
9 -> 10 ;
11 [label="Age <= 28.5\ngini = 0.5\nsamples = 22\nvalue = [11, 11]\nclass = Survived", fillcolor="#e5813900"] ;
10 -> 11 ;
12 [label="Age <= 24.5\ngini = 0.459\nsamples = 14\nvalue = [5, 9]\nclass = Did not survived", fillcolor="#399de571"] ;
11 -> 12 ;
13 [label="Age <= 23.5\ngini = 0.444\nsamples = 3\nvalue = [2, 1]\nclass = Survived", fillcolor="#e581397f"] ;
12 -> 13 ;
14 [label="gini = 0.0\nsamples = 1\nvalue = [0, 1]\nclass = Did not survived", fillcolor="#399de5ff"] ;
13 -> 14 ;
15 [label="gini = 0.0\nsamples = 2\nvalue = [2, 0]\nclass = Survived", fillcolor="#e58139ff"] ;
13 -> 15 ;
16 [label="Age <= 27.5\ngini = 0.397\nsamples = 11\nvalue = [3, 8]\nclass = Did not survived", fillcolor="#399de59f"] ;
12 -> 16 ;
17 [label="Age <= 26.5\ngini = 0.245\nsamples = 7\nvalue = [1, 6]\nclass = Did not survived", fillcolor="#399de5d4"] ;
16 -> 17 ;
18 [label="gini = 0.0\nsamples = 3\nvalue = [0, 3]\nclass = Did not survived", fillcolor="#399de5ff"] ;
17 -> 18 ;
19 [label="gini = 0.375\nsamples = 4\nvalue = [1, 3]\nclass = Did not survived", fillcolor="#399de5aa"] ;
17 -> 19 ;
20 [label="gini = 0.5\nsamples = 4\nvalue = [2, 2]\nclass = Survived", fillcolor="#e5813900"] ;
16 -> 20 ;
21 [label="Age <= 30.5\ngini = 0.375\nsamples = 8\nvalue = [6, 2]\nclass = Survived", fillcolor="#e58139aa"] ;
11 -> 21 ;
22 [label="gini = 0.0\nsamples = 3\nvalue = [3, 0]\nclass = Survived", fillcolor="#e58139ff"] ;
21 -> 22 ;
23 [label="Age <= 32.5\ngini = 0.48\nsamples = 5\nvalue = [3, 2]\nclass = Survived", fillcolor="#e5813955"] ;
21 -> 23 ;
24 [label="Age <= 31.5\ngini = 0.5\nsamples = 4\nvalue = [2, 2]\nclass = Survived", fillcolor="#e5813900"] ;
23 -> 24 ;
25 [label="gini = 0.444\nsamples = 3\nvalue = [2, 1]\nclass = Survived", fillcolor="#e581397f"] ;
24 -> 25 ;
26 [label="gini = 0.0\nsamples = 1\nvalue = [0, 1]\nclass = Did not survived", fillcolor="#399de5ff"] ;
24 -> 26 ;
27 [label="gini = 0.0\nsamples = 1\nvalue = [1, 0]\nclass = Survived", fillcolor="#e58139ff"] ;
23 -> 27 ;
28 [label="Age <= 35.5\ngini = 0.32\nsamples = 10\nvalue = [2, 8]\nclass = Did not survived", fillcolor="#399de5bf"] ;
10 -> 28 ;
29 [label="gini = 0.0\nsamples = 4\nvalue = [0, 4]\nclass = Did not survived", fillcolor="#399de5ff"] ;
28 -> 29 ;
30 [label="gini = 0.444\nsamples = 6\nvalue = [2, 4]\nclass = Did not survived", fillcolor="#399de57f"] ;
28 -> 30 ;
31 [label="Age <= 47.5\ngini = 0.465\nsamples = 38\nvalue = [24, 14]\nclass = Survived", fillcolor="#e581396a"] ;
9 -> 31 ;
32 [label="Age <= 43.0\ngini = 0.365\nsamples = 25\nvalue = [19, 6]\nclass = Survived", fillcolor="#e58139ae"] ;
31 -> 32 ;
33 [label="Age <= 41.0\ngini = 0.473\nsamples = 13\nvalue = [8, 5]\nclass = Survived", fillcolor="#e5813960"] ;
32 -> 33 ;
34 [label="Age <= 38.5\ngini = 0.42\nsamples = 10\nvalue = [7, 3]\nclass = Survived", fillcolor="#e5813992"] ;
33 -> 34 ;
35 [label="Age <= 37.5\ngini = 0.444\nsamples = 6\nvalue = [4, 2]\nclass = Survived", fillcolor="#e581397f"] ;
34 -> 35 ;
36 [label="gini = 0.444\nsamples = 3\nvalue = [2, 1]\nclass = Survived", fillcolor="#e581397f"] ;
35 -> 36 ;
37 [label="gini = 0.444\nsamples = 3\nvalue = [2, 1]\nclass = Survived", fillcolor="#e581397f"] ;
35 -> 37 ;
38 [label="Age <= 39.5\ngini = 0.375\nsamples = 4\nvalue = [3, 1]\nclass = Survived", fillcolor="#e58139aa"] ;
34 -> 38 ;
39 [label="gini = 0.0\nsamples = 1\nvalue = [1, 0]\nclass = Survived", fillcolor="#e58139ff"] ;
38 -> 39 ;
40 [label="gini = 0.444\nsamples = 3\nvalue = [2, 1]\nclass = Survived", fillcolor="#e581397f"] ;
38 -> 40 ;
41 [label="gini = 0.444\nsamples = 3\nvalue = [1, 2]\nclass = Did not survived", fillcolor="#399de57f"] ;
33 -> 41 ;
42 [label="Age <= 45.25\ngini = 0.153\nsamples = 12\nvalue = [11, 1]\nclass = Survived", fillcolor="#e58139e8"] ;
32 -> 42 ;
43 [label="Age <= 44.5\ngini = 0.32\nsamples = 5\nvalue = [4, 1]\nclass = Survived", fillcolor="#e58139bf"] ;
42 -> 43 ;
44 [label="gini = 0.0\nsamples = 1\nvalue = [1, 0]\nclass = Survived", fillcolor="#e58139ff"] ;
43 -> 44 ;
45 [label="gini = 0.375\nsamples = 4\nvalue = [3, 1]\nclass = Survived", fillcolor="#e58139aa"] ;
43 -> 45 ;
46 [label="gini = 0.0\nsamples = 7\nvalue = [7, 0]\nclass = Survived", fillcolor="#e58139ff"] ;
42 -> 46 ;
47 [label="Age <= 48.5\ngini = 0.473\nsamples = 13\nvalue = [5, 8]\nclass = Did not survived", fillcolor="#399de560"] ;
31 -> 47 ;
48 [label="gini = 0.0\nsamples = 3\nvalue = [0, 3]\nclass = Did not survived", fillcolor="#399de5ff"] ;
47 -> 48 ;
49 [label="Age <= 49.5\ngini = 0.5\nsamples = 10\nvalue = [5, 5]\nclass = Survived", fillcolor="#e5813900"] ;
47 -> 49 ;
50 [label="gini = 0.444\nsamples = 3\nvalue = [1, 2]\nclass = Did not survived", fillcolor="#399de57f"] ;
49 -> 50 ;
51 [label="Age <= 50.5\ngini = 0.49\nsamples = 7\nvalue = [4, 3]\nclass = Survived", fillcolor="#e5813940"] ;
49 -> 51 ;
52 [label="gini = 0.444\nsamples = 3\nvalue = [2, 1]\nclass = Survived", fillcolor="#e581397f"] ;
51 -> 52 ;
53 [label="Age <= 51.5\ngini = 0.5\nsamples = 4\nvalue = [2, 2]\nclass = Survived", fillcolor="#e5813900"] ;
51 -> 53 ;
54 [label="gini = 0.5\nsamples = 2\nvalue = [1, 1]\nclass = Survived", fillcolor="#e5813900"] ;
53 -> 54 ;
55 [label="gini = 0.5\nsamples = 2\nvalue = [1, 1]\nclass = Survived", fillcolor="#e5813900"] ;
53 -> 55 ;
56 [label="Age <= 75.5\ngini = 0.236\nsamples = 22\nvalue = [19, 3]\nclass = Survived", fillcolor="#e58139d7"] ;
2 -> 56 ;
57 [label="Age <= 60.5\ngini = 0.172\nsamples = 21\nvalue = [19, 2]\nclass = Survived", fillcolor="#e58139e4"] ;
56 -> 57 ;
58 [label="Age <= 59.0\ngini = 0.32\nsamples = 10\nvalue = [8, 2]\nclass = Survived", fillcolor="#e58139bf"] ;
57 -> 58 ;
59 [label="Age <= 55.5\ngini = 0.219\nsamples = 8\nvalue = [7, 1]\nclass = Survived", fillcolor="#e58139db"] ;
58 -> 59 ;
60 [label="gini = 0.0\nsamples = 3\nvalue = [3, 0]\nclass = Survived", fillcolor="#e58139ff"] ;
59 -> 60 ;
61 [label="Age <= 57.0\ngini = 0.32\nsamples = 5\nvalue = [4, 1]\nclass = Survived", fillcolor="#e58139bf"] ;
59 -> 61 ;
62 [label="gini = 0.444\nsamples = 3\nvalue = [2, 1]\nclass = Survived", fillcolor="#e581397f"] ;
61 -> 62 ;
63 [label="gini = 0.0\nsamples = 2\nvalue = [2, 0]\nclass = Survived", fillcolor="#e58139ff"] ;
61 -> 63 ;
64 [label="gini = 0.5\nsamples = 2\nvalue = [1, 1]\nclass = Survived", fillcolor="#e5813900"] ;
58 -> 64 ;
65 [label="gini = 0.0\nsamples = 11\nvalue = [11, 0]\nclass = Survived", fillcolor="#e58139ff"] ;
57 -> 65 ;
66 [label="gini = 0.0\nsamples = 1\nvalue = [0, 1]\nclass = Did not survived", fillcolor="#399de5ff"] ;
56 -> 66 ;
67 [label="Age <= 13.0\ngini = 0.242\nsamples = 455\nvalue = [391, 64]\nclass = Survived", fillcolor="#e58139d5"] ;
1 -> 67 ;
68 [label="Age <= 0.21\ngini = 0.334\nsamples = 137\nvalue = [108, 29]\nclass = Survived", fillcolor="#e58139bb"] ;
67 -> 68 ;
69 [label="Pclass <= 2.5\ngini = 0.191\nsamples = 103\nvalue = [92, 11]\nclass = Survived", fillcolor="#e58139e1"] ;
68 -> 69 ;
70 [label="gini = 0.346\nsamples = 9\nvalue = [7, 2]\nclass = Survived", fillcolor="#e58139b6"] ;
69 -> 70 ;
71 [label="gini = 0.173\nsamples = 94\nvalue = [85, 9]\nclass = Survived", fillcolor="#e58139e4"] ;
69 -> 71 ;
72 [label="Pclass <= 2.5\ngini = 0.498\nsamples = 34\nvalue = [16, 18]\nclass = Did not survived", fillcolor="#399de51c"] ;
68 -> 72 ;
73 [label="gini = 0.0\nsamples = 9\nvalue = [0, 9]\nclass = Did not survived", fillcolor="#399de5ff"] ;
72 -> 73 ;
74 [label="Age <= 0.71\ngini = 0.461\nsamples = 25\nvalue = [16, 9]\nclass = Survived", fillcolor="#e5813970"] ;
72 -> 74 ;
75 [label="gini = 0.0\nsamples = 1\nvalue = [0, 1]\nclass = Did not survived", fillcolor="#399de5ff"] ;
74 -> 75 ;
76 [label="Age <= 11.5\ngini = 0.444\nsamples = 24\nvalue = [16, 8]\nclass = Survived", fillcolor="#e581397f"] ;
74 -> 76 ;
77 [label="Age <= 9.5\ngini = 0.423\nsamples = 23\nvalue = [16, 7]\nclass = Survived", fillcolor="#e581398f"] ;
76 -> 77 ;
78 [label="Age <= 2.5\ngini = 0.455\nsamples = 20\nvalue = [13, 7]\nclass = Survived", fillcolor="#e5813976"] ;
77 -> 78 ;
79 [label="Age <= 1.5\ngini = 0.278\nsamples = 6\nvalue = [5, 1]\nclass = Survived", fillcolor="#e58139cc"] ;
78 -> 79 ;
80 [label="gini = 0.444\nsamples = 3\nvalue = [2, 1]\nclass = Survived", fillcolor="#e581397f"] ;
79 -> 80 ;
81 [label="gini = 0.0\nsamples = 3\nvalue = [3, 0]\nclass = Survived", fillcolor="#e58139ff"] ;
79 -> 81 ;
82 [label="Age <= 3.5\ngini = 0.49\nsamples = 14\nvalue = [8, 6]\nclass = Survived", fillcolor="#e5813940"] ;
78 -> 82 ;
83 [label="gini = 0.0\nsamples = 2\nvalue = [0, 2]\nclass = Did not survived", fillcolor="#399de5ff"] ;
82 -> 83 ;
84 [label="Age <= 8.5\ngini = 0.444\nsamples = 12\nvalue = [8, 4]\nclass = Survived", fillcolor="#e581397f"] ;
82 -> 84 ;
85 [label="Age <= 6.5\ngini = 0.375\nsamples = 8\nvalue = [6, 2]\nclass = Survived", fillcolor="#e58139aa"] ;
84 -> 85 ;
86 [label="Age <= 5.0\ngini = 0.48\nsamples = 5\nvalue = [3, 2]\nclass = Survived", fillcolor="#e5813955"] ;
85 -> 86 ;
87 [label="gini = 0.375\nsamples = 4\nvalue = [3, 1]\nclass = Survived", fillcolor="#e58139aa"] ;
86 -> 87 ;
88 [label="gini = 0.0\nsamples = 1\nvalue = [0, 1]\nclass = Did not survived", fillcolor="#399de5ff"] ;
86 -> 88 ;
89 [label="gini = 0.0\nsamples = 3\nvalue = [3, 0]\nclass = Survived", fillcolor="#e58139ff"] ;
85 -> 89 ;
90 [label="gini = 0.5\nsamples = 4\nvalue = [2, 2]\nclass = Survived", fillcolor="#e5813900"] ;
84 -> 90 ;
91 [label="gini = 0.0\nsamples = 3\nvalue = [3, 0]\nclass = Survived", fillcolor="#e58139ff"] ;
77 -> 91 ;
92 [label="gini = 0.0\nsamples = 1\nvalue = [0, 1]\nclass = Did not survived", fillcolor="#399de5ff"] ;
76 -> 92 ;
93 [label="Age <= 32.25\ngini = 0.196\nsamples = 318\nvalue = [283, 35]\nclass = Survived", fillcolor="#e58139df"] ;
67 -> 93 ;
94 [label="Age <= 30.75\ngini = 0.235\nsamples = 213\nvalue = [184, 29]\nclass = Survived", fillcolor="#e58139d7"] ;
93 -> 94 ;
95 [label="Pclass <= 2.5\ngini = 0.195\nsamples = 192\nvalue = [171, 21]\nclass = Survived", fillcolor="#e58139e0"] ;
94 -> 95 ;
96 [label="Age <= 20.0\ngini = 0.045\nsamples = 43\nvalue = [42, 1]\nclass = Survived", fillcolor="#e58139f9"] ;
95 -> 96 ;
97 [label="Age <= 18.5\ngini = 0.18\nsamples = 10\nvalue = [9, 1]\nclass = Survived", fillcolor="#e58139e3"] ;
96 -> 97 ;
98 [label="gini = 0.0\nsamples = 6\nvalue = [6, 0]\nclass = Survived", fillcolor="#e58139ff"] ;
97 -> 98 ;
99 [label="gini = 0.375\nsamples = 4\nvalue = [3, 1]\nclass = Survived", fillcolor="#e58139aa"] ;
97 -> 99 ;
100 [label="gini = 0.0\nsamples = 33\nvalue = [33, 0]\nclass = Survived", fillcolor="#e58139ff"] ;
96 -> 100 ;
101 [label="Age <= 24.75\ngini = 0.232\nsamples = 149\nvalue = [129, 20]\nclass = Survived", fillcolor="#e58139d7"] ;
95 -> 101 ;
102 [label="Age <= 20.25\ngini = 0.175\nsamples = 93\nvalue = [84, 9]\nclass = Survived", fillcolor="#e58139e4"] ;
101 -> 102 ;
103 [label="Age <= 19.5\ngini = 0.208\nsamples = 51\nvalue = [45, 6]\nclass = Survived", fillcolor="#e58139dd"] ;
102 -> 103 ;
104 [label="Age <= 15.5\ngini = 0.145\nsamples = 38\nvalue = [35, 3]\nclass = Survived", fillcolor="#e58139e9"] ;
103 -> 104 ;
105 [label="gini = 0.0\nsamples = 3\nvalue = [3, 0]\nclass = Survived", fillcolor="#e58139ff"] ;
104 -> 105 ;
106 [label="Age <= 17.5\ngini = 0.157\nsamples = 35\nvalue = [32, 3]\nclass = Survived", fillcolor="#e58139e7"] ;
104 -> 106 ;
107 [label="Age <= 16.5\ngini = 0.124\nsamples = 15\nvalue = [14, 1]\nclass = Survived", fillcolor="#e58139ed"] ;
106 -> 107 ;
108 [label="gini = 0.198\nsamples = 9\nvalue = [8, 1]\nclass = Survived", fillcolor="#e58139df"] ;
107 -> 108 ;
109 [label="gini = 0.0\nsamples = 6\nvalue = [6, 0]\nclass = Survived", fillcolor="#e58139ff"] ;
107 -> 109 ;
110 [label="Age <= 18.5\ngini = 0.18\nsamples = 20\nvalue = [18, 2]\nclass = Survived", fillcolor="#e58139e3"] ;
106 -> 110 ;
111 [label="gini = 0.219\nsamples = 8\nvalue = [7, 1]\nclass = Survived", fillcolor="#e58139db"] ;
110 -> 111 ;
112 [label="gini = 0.153\nsamples = 12\nvalue = [11, 1]\nclass = Survived", fillcolor="#e58139e8"] ;
110 -> 112 ;
113 [label="gini = 0.355\nsamples = 13\nvalue = [10, 3]\nclass = Survived", fillcolor="#e58139b3"] ;
103 -> 113 ;
114 [label="Age <= 23.75\ngini = 0.133\nsamples = 42\nvalue = [39, 3]\nclass = Survived", fillcolor="#e58139eb"] ;
102 -> 114 ;
115 [label="Age <= 22.5\ngini = 0.117\nsamples = 32\nvalue = [30, 2]\nclass = Survived", fillcolor="#e58139ee"] ;
114 -> 115 ;
116 [label="Age <= 20.75\ngini = 0.133\nsamples = 28\nvalue = [26, 2]\nclass = Survived", fillcolor="#e58139eb"] ;
115 -> 116 ;
117 [label="gini = 0.0\nsamples = 1\nvalue = [1, 0]\nclass = Survived", fillcolor="#e58139ff"] ;
116 -> 117 ;
118 [label="Age <= 21.5\ngini = 0.137\nsamples = 27\nvalue = [25, 2]\nclass = Survived", fillcolor="#e58139eb"] ;
116 -> 118 ;
119 [label="gini = 0.142\nsamples = 13\nvalue = [12, 1]\nclass = Survived", fillcolor="#e58139ea"] ;
118 -> 119 ;
120 [label="gini = 0.133\nsamples = 14\nvalue = [13, 1]\nclass = Survived", fillcolor="#e58139eb"] ;
118 -> 120 ;
121 [label="gini = 0.0\nsamples = 4\nvalue = [4, 0]\nclass = Survived", fillcolor="#e58139ff"] ;
115 -> 121 ;
122 [label="Age <= 24.25\ngini = 0.18\nsamples = 10\nvalue = [9, 1]\nclass = Survived", fillcolor="#e58139e3"] ;
114 -> 122 ;
123 [label="gini = 0.198\nsamples = 9\nvalue = [8, 1]\nclass = Survived", fillcolor="#e58139df"] ;
122 -> 123 ;
124 [label="gini = 0.0\nsamples = 1\nvalue = [1, 0]\nclass = Survived", fillcolor="#e58139ff"] ;
122 -> 124 ;
125 [label="Age <= 27.5\ngini = 0.316\nsamples = 56\nvalue = [45, 11]\nclass = Survived", fillcolor="#e58139c1"] ;
101 -> 125 ;
126 [label="Age <= 26.5\ngini = 0.384\nsamples = 27\nvalue = [20, 7]\nclass = Survived", fillcolor="#e58139a6"] ;
125 -> 126 ;
127 [label="Age <= 25.5\ngini = 0.298\nsamples = 22\nvalue = [18, 4]\nclass = Survived", fillcolor="#e58139c6"] ;
126 -> 127 ;
128 [label="gini = 0.298\nsamples = 11\nvalue = [9, 2]\nclass = Survived", fillcolor="#e58139c6"] ;
127 -> 128 ;
129 [label="gini = 0.298\nsamples = 11\nvalue = [9, 2]\nclass = Survived", fillcolor="#e58139c6"] ;
127 -> 129 ;
130 [label="gini = 0.48\nsamples = 5\nvalue = [2, 3]\nclass = Did not survived", fillcolor="#399de555"] ;
126 -> 130 ;
131 [label="Age <= 28.75\ngini = 0.238\nsamples = 29\nvalue = [25, 4]\nclass = Survived", fillcolor="#e58139d6"] ;
125 -> 131 ;
132 [label="gini = 0.0\nsamples = 12\nvalue = [12, 0]\nclass = Survived", fillcolor="#e58139ff"] ;
131 -> 132 ;
133 [label="Age <= 29.5\ngini = 0.36\nsamples = 17\nvalue = [13, 4]\nclass = Survived", fillcolor="#e58139b1"] ;
131 -> 133 ;
134 [label="gini = 0.469\nsamples = 8\nvalue = [5, 3]\nclass = Survived", fillcolor="#e5813966"] ;
133 -> 134 ;
135 [label="Age <= 30.25\ngini = 0.198\nsamples = 9\nvalue = [8, 1]\nclass = Survived", fillcolor="#e58139df"] ;
133 -> 135 ;
136 [label="gini = 0.219\nsamples = 8\nvalue = [7, 1]\nclass = Survived", fillcolor="#e58139db"] ;
135 -> 136 ;
137 [label="gini = 0.0\nsamples = 1\nvalue = [1, 0]\nclass = Survived", fillcolor="#e58139ff"] ;
135 -> 137 ;
138 [label="Age <= 31.5\ngini = 0.472\nsamples = 21\nvalue = [13, 8]\nclass = Survived", fillcolor="#e5813962"] ;
94 -> 138 ;
139 [label="Pclass <= 2.5\ngini = 0.408\nsamples = 7\nvalue = [5, 2]\nclass = Survived", fillcolor="#e5813999"] ;
138 -> 139 ;
140 [label="gini = 0.375\nsamples = 4\nvalue = [3, 1]\nclass = Survived", fillcolor="#e58139aa"] ;
139 -> 140 ;
141 [label="gini = 0.444\nsamples = 3\nvalue = [2, 1]\nclass = Survived", fillcolor="#e581397f"] ;
139 -> 141 ;
142 [label="Pclass <= 2.5\ngini = 0.49\nsamples = 14\nvalue = [8, 6]\nclass = Survived", fillcolor="#e5813940"] ;
138 -> 142 ;
143 [label="gini = 0.444\nsamples = 3\nvalue = [2, 1]\nclass = Survived", fillcolor="#e581397f"] ;
142 -> 143 ;
144 [label="gini = 0.496\nsamples = 11\nvalue = [6, 5]\nclass = Survived", fillcolor="#e581392a"] ;
142 -> 144 ;
145 [label="Age <= 38.5\ngini = 0.108\nsamples = 105\nvalue = [99, 6]\nclass = Survived", fillcolor="#e58139f0"] ;
93 -> 145 ;
146 [label="Pclass <= 2.5\ngini = 0.046\nsamples = 42\nvalue = [41, 1]\nclass = Survived", fillcolor="#e58139f9"] ;
145 -> 146 ;
147 [label="Age <= 34.5\ngini = 0.117\nsamples = 16\nvalue = [15, 1]\nclass = Survived", fillcolor="#e58139ee"] ;
146 -> 147 ;
148 [label="Age <= 33.5\ngini = 0.219\nsamples = 8\nvalue = [7, 1]\nclass = Survived", fillcolor="#e58139db"] ;
147 -> 148 ;
149 [label="gini = 0.0\nsamples = 2\nvalue = [2, 0]\nclass = Survived", fillcolor="#e58139ff"] ;
148 -> 149 ;
150 [label="gini = 0.278\nsamples = 6\nvalue = [5, 1]\nclass = Survived", fillcolor="#e58139cc"] ;
148 -> 150 ;
151 [label="gini = 0.0\nsamples = 8\nvalue = [8, 0]\nclass = Survived", fillcolor="#e58139ff"] ;
147 -> 151 ;
152 [label="gini = 0.0\nsamples = 26\nvalue = [26, 0]\nclass = Survived", fillcolor="#e58139ff"] ;
146 -> 152 ;
153 [label="Age <= 45.25\ngini = 0.146\nsamples = 63\nvalue = [58, 5]\nclass = Survived", fillcolor="#e58139e9"] ;
145 -> 153 ;
154 [label="Age <= 44.5\ngini = 0.219\nsamples = 32\nvalue = [28, 4]\nclass = Survived", fillcolor="#e58139db"] ;
153 -> 154 ;
155 [label="Age <= 43.5\ngini = 0.18\nsamples = 30\nvalue = [27, 3]\nclass = Survived", fillcolor="#e58139e3"] ;
154 -> 155 ;
156 [label="Pclass <= 2.5\ngini = 0.147\nsamples = 25\nvalue = [23, 2]\nclass = Survived", fillcolor="#e58139e9"] ;
155 -> 156 ;
157 [label="Age <= 40.5\ngini = 0.245\nsamples = 7\nvalue = [6, 1]\nclass = Survived", fillcolor="#e58139d4"] ;
156 -> 157 ;
158 [label="gini = 0.0\nsamples = 3\nvalue = [3, 0]\nclass = Survived", fillcolor="#e58139ff"] ;
157 -> 158 ;
159 [label="Age <= 42.5\ngini = 0.375\nsamples = 4\nvalue = [3, 1]\nclass = Survived", fillcolor="#e58139aa"] ;
157 -> 159 ;
160 [label="gini = 0.444\nsamples = 3\nvalue = [2, 1]\nclass = Survived", fillcolor="#e581397f"] ;
159 -> 160 ;
161 [label="gini = 0.0\nsamples = 1\nvalue = [1, 0]\nclass = Survived", fillcolor="#e58139ff"] ;
159 -> 161 ;
162 [label="Age <= 39.5\ngini = 0.105\nsamples = 18\nvalue = [17, 1]\nclass = Survived", fillcolor="#e58139f0"] ;
156 -> 162 ;
163 [label="gini = 0.375\nsamples = 4\nvalue = [3, 1]\nclass = Survived", fillcolor="#e58139aa"] ;
162 -> 163 ;
164 [label="gini = 0.0\nsamples = 14\nvalue = [14, 0]\nclass = Survived", fillcolor="#e58139ff"] ;
162 -> 164 ;
165 [label="Pclass <= 2.5\ngini = 0.32\nsamples = 5\nvalue = [4, 1]\nclass = Survived", fillcolor="#e58139bf"] ;
155 -> 165 ;
166 [label="gini = 0.0\nsamples = 1\nvalue = [1, 0]\nclass = Survived", fillcolor="#e58139ff"] ;
165 -> 166 ;
167 [label="gini = 0.375\nsamples = 4\nvalue = [3, 1]\nclass = Survived", fillcolor="#e58139aa"] ;
165 -> 167 ;
168 [label="gini = 0.5\nsamples = 2\nvalue = [1, 1]\nclass = Survived", fillcolor="#e5813900"] ;
154 -> 168 ;
169 [label="Age <= 61.5\ngini = 0.062\nsamples = 31\nvalue = [30, 1]\nclass = Survived", fillcolor="#e58139f6"] ;
153 -> 169 ;
170 [label="gini = 0.0\nsamples = 25\nvalue = [25, 0]\nclass = Survived", fillcolor="#e58139ff"] ;
169 -> 170 ;
171 [label="Age <= 63.5\ngini = 0.278\nsamples = 6\nvalue = [5, 1]\nclass = Survived", fillcolor="#e58139cc"] ;
169 -> 171 ;
172 [label="gini = 0.0\nsamples = 1\nvalue = [0, 1]\nclass = Did not survived", fillcolor="#399de5ff"] ;
171 -> 172 ;
173 [label="gini = 0.0\nsamples = 5\nvalue = [5, 0]\nclass = Survived", fillcolor="#e58139ff"] ;
171 -> 173 ;
174 [label="Pclass <= 2.5\ngini = 0.383\nsamples = 314\nvalue = [81, 233]\nclass = Did not survived", fillcolor="#399de5a6"] ;
0 -> 174 [labeldistance=2.5, labelangle=-45, headlabel="False"] ;
175 [label="Pclass <= 1.5\ngini = 0.1\nsamples = 170\nvalue = [9, 161]\nclass = Did not survived", fillcolor="#399de5f1"] ;
174 -> 175 ;
176 [label="Age <= 8.0\ngini = 0.062\nsamples = 94\nvalue = [3, 91]\nclass = Did not survived", fillcolor="#399de5f7"] ;
175 -> 176 ;
177 [label="Age <= 1.0\ngini = 0.18\nsamples = 10\nvalue = [1, 9]\nclass = Did not survived", fillcolor="#399de5e3"] ;
176 -> 177 ;
178 [label="gini = 0.0\nsamples = 9\nvalue = [0, 9]\nclass = Did not survived", fillcolor="#399de5ff"] ;
177 -> 178 ;
179 [label="gini = 0.0\nsamples = 1\nvalue = [1, 0]\nclass = Survived", fillcolor="#e58139ff"] ;
177 -> 179 ;
180 [label="Age <= 49.5\ngini = 0.046\nsamples = 84\nvalue = [2, 82]\nclass = Did not survived", fillcolor="#399de5f9"] ;
176 -> 180 ;
181 [label="Age <= 25.5\ngini = 0.029\nsamples = 69\nvalue = [1, 68]\nclass = Did not survived", fillcolor="#399de5fb"] ;
180 -> 181 ;
182 [label="Age <= 24.5\ngini = 0.071\nsamples = 27\nvalue = [1, 26]\nclass = Did not survived", fillcolor="#399de5f5"] ;
181 -> 182 ;
183 [label="gini = 0.0\nsamples = 26\nvalue = [0, 26]\nclass = Did not survived", fillcolor="#399de5ff"] ;
182 -> 183 ;
184 [label="gini = 0.0\nsamples = 1\nvalue = [1, 0]\nclass = Survived", fillcolor="#e58139ff"] ;
182 -> 184 ;
185 [label="gini = 0.0\nsamples = 42\nvalue = [0, 42]\nclass = Did not survived", fillcolor="#399de5ff"] ;
181 -> 185 ;
186 [label="Age <= 50.5\ngini = 0.124\nsamples = 15\nvalue = [1, 14]\nclass = Did not survived", fillcolor="#399de5ed"] ;
180 -> 186 ;
187 [label="gini = 0.5\nsamples = 2\nvalue = [1, 1]\nclass = Survived", fillcolor="#e5813900"] ;
186 -> 187 ;
188 [label="gini = 0.0\nsamples = 13\nvalue = [0, 13]\nclass = Did not survived", fillcolor="#399de5ff"] ;
186 -> 188 ;
189 [label="Age <= 56.0\ngini = 0.145\nsamples = 76\nvalue = [6, 70]\nclass = Did not survived", fillcolor="#399de5e9"] ;
175 -> 189 ;
190 [label="Age <= 23.5\ngini = 0.124\nsamples = 75\nvalue = [5, 70]\nclass = Did not survived", fillcolor="#399de5ed"] ;
189 -> 190 ;
191 [label="gini = 0.0\nsamples = 22\nvalue = [0, 22]\nclass = Did not survived", fillcolor="#399de5ff"] ;
190 -> 191 ;
192 [label="Age <= 27.5\ngini = 0.171\nsamples = 53\nvalue = [5, 48]\nclass = Did not survived", fillcolor="#399de5e4"] ;
190 -> 192 ;
193 [label="Age <= 25.5\ngini = 0.355\nsamples = 13\nvalue = [3, 10]\nclass = Did not survived", fillcolor="#399de5b3"] ;
192 -> 193 ;
194 [label="Age <= 24.5\ngini = 0.198\nsamples = 9\nvalue = [1, 8]\nclass = Did not survived", fillcolor="#399de5df"] ;
193 -> 194 ;
195 [label="gini = 0.245\nsamples = 7\nvalue = [1, 6]\nclass = Did not survived", fillcolor="#399de5d4"] ;
194 -> 195 ;
196 [label="gini = 0.0\nsamples = 2\nvalue = [0, 2]\nclass = Did not survived", fillcolor="#399de5ff"] ;
194 -> 196 ;
197 [label="Age <= 26.5\ngini = 0.5\nsamples = 4\nvalue = [2, 2]\nclass = Survived", fillcolor="#e5813900"] ;
193 -> 197 ;
198 [label="gini = 0.0\nsamples = 1\nvalue = [1, 0]\nclass = Survived", fillcolor="#e58139ff"] ;
197 -> 198 ;
199 [label="gini = 0.444\nsamples = 3\nvalue = [1, 2]\nclass = Did not survived", fillcolor="#399de57f"] ;
197 -> 199 ;
200 [label="Age <= 37.0\ngini = 0.095\nsamples = 40\nvalue = [2, 38]\nclass = Did not survived", fillcolor="#399de5f2"] ;
192 -> 200 ;
201 [label="gini = 0.0\nsamples = 24\nvalue = [0, 24]\nclass = Did not survived", fillcolor="#399de5ff"] ;
200 -> 201 ;
202 [label="Age <= 39.0\ngini = 0.219\nsamples = 16\nvalue = [2, 14]\nclass = Did not survived", fillcolor="#399de5db"] ;
200 -> 202 ;
203 [label="gini = 0.0\nsamples = 1\nvalue = [1, 0]\nclass = Survived", fillcolor="#e58139ff"] ;
202 -> 203 ;
204 [label="Age <= 44.5\ngini = 0.124\nsamples = 15\nvalue = [1, 14]\nclass = Did not survived", fillcolor="#399de5ed"] ;
202 -> 204 ;
205 [label="Age <= 43.0\ngini = 0.245\nsamples = 7\nvalue = [1, 6]\nclass = Did not survived", fillcolor="#399de5d4"] ;
204 -> 205 ;
206 [label="gini = 0.0\nsamples = 6\nvalue = [0, 6]\nclass = Did not survived", fillcolor="#399de5ff"] ;
205 -> 206 ;
207 [label="gini = 0.0\nsamples = 1\nvalue = [1, 0]\nclass = Survived", fillcolor="#e58139ff"] ;
205 -> 207 ;
208 [label="gini = 0.0\nsamples = 8\nvalue = [0, 8]\nclass = Did not survived", fillcolor="#399de5ff"] ;
204 -> 208 ;
209 [label="gini = 0.0\nsamples = 1\nvalue = [1, 0]\nclass = Survived", fillcolor="#e58139ff"] ;
189 -> 209 ;
210 [label="Age <= 38.5\ngini = 0.5\nsamples = 144\nvalue = [72, 72]\nclass = Survived", fillcolor="#e5813900"] ;
174 -> 210 ;
211 [label="Age <= 5.5\ngini = 0.497\nsamples = 132\nvalue = [61, 71]\nclass = Did not survived", fillcolor="#399de524"] ;
210 -> 211 ;
212 [label="Age <= 3.5\ngini = 0.465\nsamples = 57\nvalue = [21, 36]\nclass = Did not survived", fillcolor="#399de56a"] ;
211 -> 212 ;
213 [label="Age <= 1.5\ngini = 0.484\nsamples = 51\nvalue = [21, 30]\nclass = Did not survived", fillcolor="#399de54d"] ;
212 -> 213 ;
214 [label="Age <= 0.375\ngini = 0.466\nsamples = 46\nvalue = [17, 29]\nclass = Did not survived", fillcolor="#399de56a"] ;
213 -> 214 ;
215 [label="gini = 0.482\nsamples = 42\nvalue = [17, 25]\nclass = Did not survived", fillcolor="#399de552"] ;
214 -> 215 ;
216 [label="gini = 0.0\nsamples = 4\nvalue = [0, 4]\nclass = Did not survived", fillcolor="#399de5ff"] ;
214 -> 216 ;
217 [label="Age <= 2.5\ngini = 0.32\nsamples = 5\nvalue = [4, 1]\nclass = Survived", fillcolor="#e58139bf"] ;
213 -> 217 ;
218 [label="gini = 0.375\nsamples = 4\nvalue = [3, 1]\nclass = Survived", fillcolor="#e58139aa"] ;
217 -> 218 ;
219 [label="gini = 0.0\nsamples = 1\nvalue = [1, 0]\nclass = Survived", fillcolor="#e58139ff"] ;
217 -> 219 ;
220 [label="gini = 0.0\nsamples = 6\nvalue = [0, 6]\nclass = Did not survived", fillcolor="#399de5ff"] ;
212 -> 220 ;
221 [label="Age <= 12.0\ngini = 0.498\nsamples = 75\nvalue = [40, 35]\nclass = Survived", fillcolor="#e5813920"] ;
211 -> 221 ;
222 [label="gini = 0.0\nsamples = 8\nvalue = [8, 0]\nclass = Survived", fillcolor="#e58139ff"] ;
221 -> 222 ;
223 [label="Age <= 32.5\ngini = 0.499\nsamples = 67\nvalue = [32, 35]\nclass = Did not survived", fillcolor="#399de516"] ;
221 -> 223 ;
224 [label="Age <= 27.5\ngini = 0.5\nsamples = 62\nvalue = [31, 31]\nclass = Survived", fillcolor="#e5813900"] ;
223 -> 224 ;
225 [label="Age <= 26.5\ngini = 0.492\nsamples = 48\nvalue = [21, 27]\nclass = Did not survived", fillcolor="#399de539"] ;
224 -> 225 ;
226 [label="Age <= 16.5\ngini = 0.498\nsamples = 45\nvalue = [21, 24]\nclass = Did not survived", fillcolor="#399de520"] ;
225 -> 226 ;
227 [label="Age <= 14.75\ngini = 0.42\nsamples = 10\nvalue = [3, 7]\nclass = Did not survived", fillcolor="#399de592"] ;
226 -> 227 ;
228 [label="Age <= 13.5\ngini = 0.5\nsamples = 4\nvalue = [2, 2]\nclass = Survived", fillcolor="#e5813900"] ;
227 -> 228 ;
229 [label="gini = 0.0\nsamples = 1\nvalue = [0, 1]\nclass = Did not survived", fillcolor="#399de5ff"] ;
228 -> 229 ;
230 [label="Age <= 14.25\ngini = 0.444\nsamples = 3\nvalue = [2, 1]\nclass = Survived", fillcolor="#e581397f"] ;
228 -> 230 ;
231 [label="gini = 0.5\nsamples = 2\nvalue = [1, 1]\nclass = Survived", fillcolor="#e5813900"] ;
230 -> 231 ;
232 [label="gini = 0.0\nsamples = 1\nvalue = [1, 0]\nclass = Survived", fillcolor="#e58139ff"] ;
230 -> 232 ;
233 [label="Age <= 15.5\ngini = 0.278\nsamples = 6\nvalue = [1, 5]\nclass = Did not survived", fillcolor="#399de5cc"] ;
227 -> 233 ;
234 [label="gini = 0.0\nsamples = 3\nvalue = [0, 3]\nclass = Did not survived", fillcolor="#399de5ff"] ;
233 -> 234 ;
235 [label="gini = 0.444\nsamples = 3\nvalue = [1, 2]\nclass = Did not survived", fillcolor="#399de57f"] ;
233 -> 235 ;
236 [label="Age <= 21.5\ngini = 0.5\nsamples = 35\nvalue = [18, 17]\nclass = Survived", fillcolor="#e581390e"] ;
226 -> 236 ;
237 [label="Age <= 19.5\ngini = 0.475\nsamples = 18\nvalue = [11, 7]\nclass = Survived", fillcolor="#e581395d"] ;
236 -> 237 ;
238 [label="Age <= 18.5\ngini = 0.5\nsamples = 12\nvalue = [6, 6]\nclass = Survived", fillcolor="#e5813900"] ;
237 -> 238 ;
239 [label="Age <= 17.5\ngini = 0.48\nsamples = 10\nvalue = [6, 4]\nclass = Survived", fillcolor="#e5813955"] ;
238 -> 239 ;
240 [label="gini = 0.5\nsamples = 2\nvalue = [1, 1]\nclass = Survived", fillcolor="#e5813900"] ;
239 -> 240 ;
241 [label="gini = 0.469\nsamples = 8\nvalue = [5, 3]\nclass = Survived", fillcolor="#e5813966"] ;
239 -> 241 ;
242 [label="gini = 0.0\nsamples = 2\nvalue = [0, 2]\nclass = Did not survived", fillcolor="#399de5ff"] ;
238 -> 242 ;
243 [label="Age <= 20.5\ngini = 0.278\nsamples = 6\nvalue = [5, 1]\nclass = Survived", fillcolor="#e58139cc"] ;
237 -> 243 ;
244 [label="gini = 0.0\nsamples = 2\nvalue = [2, 0]\nclass = Survived", fillcolor="#e58139ff"] ;
243 -> 244 ;
245 [label="gini = 0.375\nsamples = 4\nvalue = [3, 1]\nclass = Survived", fillcolor="#e58139aa"] ;
243 -> 245 ;
246 [label="Age <= 24.5\ngini = 0.484\nsamples = 17\nvalue = [7, 10]\nclass = Did not survived", fillcolor="#399de54d"] ;
236 -> 246 ;
247 [label="Age <= 23.5\ngini = 0.444\nsamples = 12\nvalue = [4, 8]\nclass = Did not survived", fillcolor="#399de57f"] ;
246 -> 247 ;
248 [label="Age <= 22.5\ngini = 0.469\nsamples = 8\nvalue = [3, 5]\nclass = Did not survived", fillcolor="#399de566"] ;
247 -> 248 ;
249 [label="gini = 0.444\nsamples = 6\nvalue = [2, 4]\nclass = Did not survived", fillcolor="#399de57f"] ;
248 -> 249 ;
250 [label="gini = 0.5\nsamples = 2\nvalue = [1, 1]\nclass = Survived", fillcolor="#e5813900"] ;
248 -> 250 ;
251 [label="gini = 0.375\nsamples = 4\nvalue = [1, 3]\nclass = Did not survived", fillcolor="#399de5aa"] ;
247 -> 251 ;
252 [label="Age <= 25.5\ngini = 0.48\nsamples = 5\nvalue = [3, 2]\nclass = Survived", fillcolor="#e5813955"] ;
246 -> 252 ;
253 [label="gini = 0.0\nsamples = 2\nvalue = [2, 0]\nclass = Survived", fillcolor="#e58139ff"] ;
252 -> 253 ;
254 [label="gini = 0.444\nsamples = 3\nvalue = [1, 2]\nclass = Did not survived", fillcolor="#399de57f"] ;
252 -> 254 ;
255 [label="gini = 0.0\nsamples = 3\nvalue = [0, 3]\nclass = Did not survived", fillcolor="#399de5ff"] ;
225 -> 255 ;
256 [label="Age <= 28.5\ngini = 0.408\nsamples = 14\nvalue = [10, 4]\nclass = Survived", fillcolor="#e5813999"] ;
224 -> 256 ;
257 [label="gini = 0.0\nsamples = 2\nvalue = [2, 0]\nclass = Survived", fillcolor="#e58139ff"] ;
256 -> 257 ;
258 [label="Age <= 31.5\ngini = 0.444\nsamples = 12\nvalue = [8, 4]\nclass = Survived", fillcolor="#e581397f"] ;
256 -> 258 ;
259 [label="Age <= 30.75\ngini = 0.463\nsamples = 11\nvalue = [7, 4]\nclass = Survived", fillcolor="#e581396d"] ;
258 -> 259 ;
260 [label="Age <= 30.25\ngini = 0.408\nsamples = 7\nvalue = [5, 2]\nclass = Survived", fillcolor="#e5813999"] ;
259 -> 260 ;
261 [label="Age <= 29.5\ngini = 0.444\nsamples = 6\nvalue = [4, 2]\nclass = Survived", fillcolor="#e581397f"] ;
260 -> 261 ;
262 [label="gini = 0.444\nsamples = 3\nvalue = [2, 1]\nclass = Survived", fillcolor="#e581397f"] ;
261 -> 262 ;
263 [label="gini = 0.444\nsamples = 3\nvalue = [2, 1]\nclass = Survived", fillcolor="#e581397f"] ;
261 -> 263 ;
264 [label="gini = 0.0\nsamples = 1\nvalue = [1, 0]\nclass = Survived", fillcolor="#e58139ff"] ;
260 -> 264 ;
265 [label="gini = 0.5\nsamples = 4\nvalue = [2, 2]\nclass = Survived", fillcolor="#e5813900"] ;
259 -> 265 ;
266 [label="gini = 0.0\nsamples = 1\nvalue = [1, 0]\nclass = Survived", fillcolor="#e58139ff"] ;
258 -> 266 ;
267 [label="Age <= 36.5\ngini = 0.32\nsamples = 5\nvalue = [1, 4]\nclass = Did not survived", fillcolor="#399de5bf"] ;
223 -> 267 ;
268 [label="gini = 0.0\nsamples = 3\nvalue = [0, 3]\nclass = Did not survived", fillcolor="#399de5ff"] ;
267 -> 268 ;
269 [label="Age <= 37.5\ngini = 0.5\nsamples = 2\nvalue = [1, 1]\nclass = Survived", fillcolor="#e5813900"] ;
267 -> 269 ;
270 [label="gini = 0.0\nsamples = 1\nvalue = [1, 0]\nclass = Survived", fillcolor="#e58139ff"] ;
269 -> 270 ;
271 [label="gini = 0.0\nsamples = 1\nvalue = [0, 1]\nclass = Did not survived", fillcolor="#399de5ff"] ;
269 -> 271 ;
272 [label="Age <= 55.5\ngini = 0.153\nsamples = 12\nvalue = [11, 1]\nclass = Survived", fillcolor="#e58139e8"] ;
210 -> 272 ;
273 [label="gini = 0.0\nsamples = 11\nvalue = [11, 0]\nclass = Survived", fillcolor="#e58139ff"] ;
272 -> 273 ;
274 [label="gini = 0.0\nsamples = 1\nvalue = [0, 1]\nclass = Did not survived", fillcolor="#399de5ff"] ;
272 -> 274 ;
}